{
  "mean": [
    1.3196177627880832, 1.1430016863406407, 0.4871275997751546, 0.30567734682405845,
    17.102192242833052, 9.179988757729062, 1.1332209106239461, 0.4536256323777403,
    0.9637998875772906, 3.369533445756043, 0.43946037099494095, 1.3872962338392356,
    5.8631141090500165, 0.525238898257448
  ],
  "std": [
    2.149978801688848, 1.9418210843591988, 0.6157275510384824, 0.49866187372223364,
    7.169513459331452, 3.6688200227899883, 1.3853458228926374, 0.5960918789933848,
    0.18678775196272354, 4.506797608497382, 0.49632142137928187, 3.2103115984649895,
    2.9062601838499496, 1.441225661453964
  ],
  "w1": [
    [
      -0.08594587432110846, 0.24104317190316274, -0.06476400697624171, 0.2781677241005716,
      0.3274626191546358, -0.17498107722656123, -0.3758653364784, -0.17618668600195198,
      -0.2714979237698837, -0.3457467453644385, 0.24334173967813505, -0.05151338048229109,
      -0.19138975743535228, 0.14107159276925363
    ],
    [
      0.0625659397577081, -0.16899589956393263, -0.19533557207440957, 0.32636676853666774,
      -0.02669242278510909, 0.12467243919918207, -0.41847954395246517, -0.15030593484329724,
      0.0026695757679485593, -0.24693121830654868, -0.26841881572386156, -0.042998135946825965,
      0.1410085154423173, 0.13244409152621223
    ],
    [
      -0.15454760320583832, 0.1687906189770974, -0.15155399237082667, 0.3333488473145206,
      -0.3738238446307317, -0.14357189525101316, -0.3656415775645788, -0.16460269033419267,
      -0.13901617482345915, 0.3158008106750412, 0.20198794877013743, 0.14759194283507251,
      0.12601354852798702, 0.22873222427975112
    ],
    [
      0.966546326665908, -0.2658331065773147, -0.003692298560975743, -0.27930698334221843,
      0.21183135488742125, -0.32571311842018597, -0.1302737044727315, 0.19244720280589947,
      0.20295154948549823, -0.2525045598167204, -0.14552749206260363, 0.40185944040275867,
      -0.08727663878646548, 0.027933574290339876
    ],
    [
      -0.3070712260758106, 0.004960323879176901, 0.29658785090397016, 0.015546257148937787,
      -0.07834690774688866, -0.33316329955076807, -0.19764977409672213, -0.3239568553765567,
      0.22562323495410444, -0.2608768550140985, -0.10146056234834423, 0.006825902091931497,
      -0.088998906034881, -0.3058119293775045
    ],
    [
      -0.06379273929501571, 0.04550028244336979, 0.4777814728456666, 0.23636492566400585,
      0.21927385636712865, 0.07055551207219345, -0.07687991636383407, 0.24187072402423893,
      0.05499082753460807, 0.25703002222785404, -0.08488176793746344, -0.02070320128963529,
      -0.23599480819578253, 0.21623828381946464
    ],
    [
      0.12865929007521126, -0.15803882627791763, 0.13670896101329238, -0.092073818208859,
      0.08850117467434429, 0.2456298674762711, 0.06316538131811211, 0.46520324396126644,
      0.37526597559144564, 0.09419875047671168, 0.08233074227172041, -0.02970180032601108,
      0.3197473917502074, 0.12026949385165295
    ],
    [
      -0.3029232782816859, -0.21858669161704056, -0.15341262194360772, 0.18399926545613143,
      -0.271768206324804, 0.03850532939455929, 0.09278909188969736, -0.24518301946616114,
      -0.09561820742480111, 0.19286752658674283, -0.08531022665668514, 0.1852731275898297,
      0.33960344970478223, 0.03961040029899156
    ],
    [
      -0.3274573826083731, -0.2288952113495972, -0.4986146564041721, 0.1128877478668287,
      -0.1154163605078476, -0.09175673080768196, -0.12356890707526763, -0.2732299757581324,
      -0.15589513642310168, -0.09318754990908555, 0.3054377089625028, 0.29208672850478623,
      0.07201215200942537, -0.20201998545642985
    ],
    [
      -0.019024433661105362, -0.15360323323221775, -0.16123122727173478, -0.06536899668035169,
      -0.25483503755702264, 0.10261347824336536, 0.284401870376261, 0.5097413189423251,
      0.13038868260974815, -0.01945921134667039, -0.10389818039177671, -0.3424988297233827,
      0.14384625282418523, -0.021859617265798985
    ],
    [
      -0.35991188632417964, 0.3051999774894918, -0.07057267982272386, -0.31800226416863536,
      -0.272852067884024, 0.30188345907177067, 0.14367279774657168, 0.21683900197962266,
      0.3874034931296768, 0.062015600556979605, 0.16883051282037112, 0.019203146316521893,
      -0.1389698087068399, 0.09035827915791757
    ],
    [
      0.13197882988693607, 0.42829817361744166, -0.2802201147376418, 0.23739128924375597,
      0.03686135672450067, -0.025183965596513265, -0.5014876059291472, -0.268067912901377,
      0.32486607039456716, -0.2236107123935722, -0.030523873358192267, -0.39786938680350614,
      -0.30721868925513185, -0.02077434072812462
    ],
    [
      -0.34341019461766875, 0.2147784419134342, 0.038050667923453095, 0.09730003967839936,
      0.20371593223730305, -0.07758508187128484, -0.5082294022354132, 0.5228645728985895,
      0.012813890153028563, -0.1481453669659902, -0.0929796999282252, 0.22051927167334298,
      -0.38323693258419506, 0.2982242412575153
    ],
    [
      0.030493737600676855, -0.076307416444052, -0.210938571919925, -0.31521745590587663,
      0.15396997694352607, -0.3217720736698581, 0.14989491486846404, 0.04156389461998784,
      0.13196505304541048, -0.048889327158207985, 0.06694441656182747, -0.1568571921991901,
      -0.00417543892134932, 0.6090747516720654
    ],
    [
      -0.2715407747061796, -0.2648123783177921, -0.2515770761498651, -0.3182341136128751,
      -0.15367187056064335, 0.03174374369230061, 0.05460329924953543, -0.07072851507609003,
      0.14260821446282967, 0.0016663648415252536, 0.2330104025900607, -0.10342925594045571,
      0.4517984200059139, -0.14126640171222168
    ],
    [
      -0.24537154464312827, 0.17676928893211352, 0.07303639849613135, 0.12709178373572236,
      0.07610873008937757, -0.019895177174506222, 0.5502002461658934, -0.26427683781440564,
      0.32244700935269255, 0.12629253049285655, 0.21180939370927482, -0.29898130220303754,
      -0.6433960915883166, -0.20219397920196677
    ]
  ],
  "b1": [
    -0.17284288611096307, -0.029327397550330616, -0.030552576216597058, 0.033509962793404464,
    0.5540402930205802, -0.1314872880474136, 0.013334283076467555, -0.011469518132783898,
    0.035101323154413465, 0.053250640103583276, -0.037243905019192156, -0.00957462021168894,
    -0.1023590033040385, 0.017785764810050193, 0.05366415777633519, 0.2089883941385604
  ],
  "w2": [
    76.6375360924077, -28.672068600362092, 8.835618553347247, 218.202915746876, -235.83810184122058,
    158.19916395920026, -90.42029347316968, 8.536511518009268, -131.0431223409955,
    171.45012602966963, -125.47816540153953, 203.83813282810394, -222.92788031759864,
    154.15248280206853, 133.07881890652226, 188.2639097927449
  ],
  "b2": -95.40738360580504,
  "scale": 0.5
}
