{"mean":[1.3270445548723995,1.1500042112355766,0.5497346921586793,0.3154215446812095,17.154299671523624,9.225385328055252,1.14848816642803,0.479575507453887,0.9611724079845027,3.4121957382295967,0.46837362082034867,1.5059378421628906,5.909424745220196,0.5515876358123474],"std":[2.028083092567135,1.826691368567732,0.6714498596546173,0.5474031029262009,7.404197769777518,3.6457843265464227,1.3330698884270593,0.617366859747626,0.1931838764332334,4.582370889931483,0.4989987696778182,3.2692919938165343,2.9055260530571148,1.340109794766175],"w1":[[0.2629300135654481,-0.2546926998451574,-0.2819671239447348,-0.2893941321416918,-0.22334713860130057,0.3904414532836887,-0.020371351744589653,-0.0018383705467400274,0.1377030136063988,0.475777602490484,0.11748905244684096,0.17663330588222131,-0.10073467750191122,-0.22332138725688888],[0.29916723388946553,0.2657511521874,-0.13340628319183578,-0.15512352995406067,-0.07706389858977228,0.27484324076806993,-0.12953543358326994,0.04934121342677212,0.16094440604212135,-0.3401776358600687,-0.30333396414916547,-0.24773377068166788,0.6312568233058645,0.08506699779855108],[0.21634553583647537,-0.16925646795773647,-0.39094122988226904,-0.13951725760804798,-0.01537329010601194,0.026188258509399192,0.13639443550834146,-0.021687599497104876,0.2938141450641522,-0.0745860841060478,-0.309695712528974,0.28830045860055875,-0.11596930056558044,-0.07523642386360434],[0.1861427412772468,-0.12515206259449915,0.23861037084900596,0.11433107212883332,0.17307084312014573,0.2819306198124349,0.19641309484553054,0.13595756801974465,-0.44329236883409145,-0.3925190003720743,0.07865312893416539,0.2386143778853968,0.017108737256038953,0.020455455079860265],[0.31728394387708075,0.27998142499934286,-0.25381197365658265,-0.16920738887803458,0.031102677434525206,-0.6957227539383048,-0.01659635840697716,0.07111444766059588,0.27806772639097516,-0.19878697953438723,0.2689593780965021,-0.24919054279937292,0.07642706051533243,0.0033095633977624265],[0.30687696699190575,-0.18108905441064044,-0.4001186579052751,-0.01968431277029754,0.022842544447605903,-0.36381864136333686,0.13296398067985932,0.1746004124759361,0.12807275329923826,0.25793953709209644,-0.16002290726412577,-0.22084983941846986,0.282814114513084,0.09384404996981303],[0.09897875594307742,-0.18052538553809633,0.23871571093058472,-0.3257851855144956,0.1809642270331001,0.10793893559739035,0.028915003693867732,-0.22314053011589385,0.09909295238283894,-0.31970729095379474,-0.33352339520149316,0.5647944557578386,0.16519473319937705,-0.3015744664817508],[-0.2525288300222513,-0.041075432443079145,0.1767302339779117,0.29557056704046614,-0.07823262449114239,-0.12435253544104388,0.16851243995338855,-0.11163058285938322,0.01331860755291051,-0.031462029194615965,0.10882803936114767,-0.6548876913563818,0.05759879423105526,-0.36031471554568867],[0.3911597524141537,0.14805551194387134,0.07283438269848119,0.052087403237180606,-0.1621387675938745,0.40779486139381776,0.138617421213463,0.1334933933037299,0.571617047133053,-0.13090822260790078,-0.07075571870984787,0.3062915780248256,0.24255181806556034,-0.23048997091682302],[0.2539520516018517,0.18920784894872975,-0.1739823968253562,-0.4664353160121141,-0.17912469142613752,-0.10244447708270583,-0.17706757714545698,0.15824381951626232,-0.09213886502995781,0.00760549468993849,0.12463939641564226,0.1830620660447389,0.21416189625868523,0.043287530747106076],[-0.06723461246799035,-0.011837906143813396,-0.22328078260903408,-0.24571239013773874,-0.07335304199972625,-0.15587810289097526,-0.13561252666563758,0.17045370109674066,-0.19568134134464515,-0.3187432639926982,-0.5538182033191542,-0.22910358940545755,0.3133368794023498,-0.5383149620189323],[0.1701072658303936,0.1871796714908105,-0.21626987668666114,0.18635214119492116,-0.05596482930499765,-0.11153851919949481,-0.2513275865632666,-0.3142967136896614,-0.1621735205531923,-0.07501276093848305,-0.5316941815939927,0.310704559555466,-0.1320248685483937,0.19961201014176347],[-0.3707936897464998,-0.0849932637547671,0.3374444327201271,0.3080979590560235,0.17550211555561718,-0.5833241840169203,0.10987513498398206,-0.1517203311054057,-0.28354152699819674,-0.2829298705479691,-0.4341528756599121,0.12774077838521222,-0.02918428408966556,-0.23444263922426467],[0.29566760917290397,-0.13445156824542573,0.24461783068205079,0.18977259144015077,0.09809624104768278,-0.16570224838528966,-0.009331469912656211,0.07332500077836503,0.3043845463704474,-0.3528530266734263,0.04713350461868017,-0.5767658281391432,-0.3864227752257561,0.4555199564277393],[-0.22242578298318375,-0.2038369597081638,0.30552565630739115,-0.21181963054751418,-0.36466198656766713,-0.027294844905572622,-0.294750876107839,0.5602570988981043,0.20295527555478254,0.011817833469583764,-0.12923445897687624,0.057720719537051636,-0.25663060425839307,0.04220646008648045],[-0.08405339643441369,0.12380389653666175,-0.3107658115008778,-0.16379157874417866,-0.0727508056199213,-0.002576660284651407,-0.2592452313649082,-0.37555464643974196,-0.27770519533844934,-0.23792919674842525,-0.1178900367480557,0.6249581164925949,0.33554089121476804,-0.455457807677028]],"b1":[-0.01236586595156753,-0.27096830561462143,-0.03963510675219215,-0.14001584334647602,0.24466611731290208,0.07313688275810291,0.20067515903179953,-0.33394062110955103,0.3032747306070474,-0.1355821918684545,-0.19183287688374606,-0.2585539527359507,0.47905182141001124,-0.29319305118734135,0.5050389314253164,0.058913117982353845],"w2":[154.3231788226742,-234.23940216608068,8.500920872588859,-168.7409538214084,176.86062018042833,137.7183232751526,123.30199044644263,171.11163882653028,220.50733960856712,101.98755895800933,219.06610609715466,186.6362475618443,-240.83864993544532,238.8063946102774,-149.15120239178748,-271.5933751783307],"b2":-47.99836924349431,"scale":0.5}